FANN_FLO_2.1
num_layers=4
learning_rate=0.500000
connection_rate=1.000000
network_type=0
learning_momentum=0.000000
training_algorithm=0
train_error_function=1
train_stop_function=0
cascade_output_change_fraction=0.010000
quickprop_decay=-0.000100
quickprop_mu=1.750000
rprop_increase_factor=1.200000
rprop_decrease_factor=0.500000
rprop_delta_min=0.000000
rprop_delta_max=50.000000
rprop_delta_zero=0.100000
cascade_output_stagnation_epochs=12
cascade_candidate_change_fraction=0.010000
cascade_candidate_stagnation_epochs=12
cascade_max_out_epochs=150
cascade_min_out_epochs=50
cascade_max_cand_epochs=150
cascade_min_cand_epochs=50
cascade_num_candidate_groups=2
bit_fail_limit=3.49999999999999977796e-01
cascade_candidate_limit=1.00000000000000000000e+03
cascade_weight_multiplier=4.00000000000000022204e-01
cascade_activation_functions_count=10
cascade_activation_functions=3 5 7 8 10 11 14 15 16 17 
cascade_activation_steepnesses_count=4
cascade_activation_steepnesses=2.50000000000000000000e-01 5.00000000000000000000e-01 7.50000000000000000000e-01 1.00000000000000000000e+00 
layer_sizes=3 5 5 2 
scale_included=0
neurons (num_inputs, activation_function, activation_steepness)=(0, 0, 0.00000000000000000000e+00) (0, 0, 0.00000000000000000000e+00) (0, 0, 0.00000000000000000000e+00) (3, 4, 5.00000000000000000000e-01) (3, 4, 5.00000000000000000000e-01) (3, 4, 5.00000000000000000000e-01) (3, 4, 5.00000000000000000000e-01) (0, 0, 0.00000000000000000000e+00) (5, 4, 5.00000000000000000000e-01) (5, 4, 5.00000000000000000000e-01) (5, 4, 5.00000000000000000000e-01) (5, 4, 5.00000000000000000000e-01) (0, 0, 0.00000000000000000000e+00) (5, 6, 5.00000000000000000000e-01) (0, 6, 0.00000000000000000000e+00) 
connections (connected_to_neuron, weight)=(0, -2.09733309720767824302e+00) (1, -2.69785904416482624768e+00) (2, 1.41459110650108299545e-01) (0, -2.27885533747047741571e+00) (1, -2.92928290899737309161e+00) (2, 1.02702948548955452779e-01) (0, -7.54575680434570106314e+00) (1, 1.17540735460141765323e+00) (2, 3.38073506951903457463e+00) (0, 2.43682573006194935772e+00) (1, -6.23106613383308172160e+00) (2, 2.37178855374760821917e+00) (3, -1.29395194176628725025e+00) (4, -1.15880738998067278622e+00) (5, -1.80820614584310868089e+00) (6, -2.92350099656441830831e+00) (7, 2.33858090137922414176e-01) (3, -1.11646729392516608215e+00) (4, -1.55305600844522762038e+00) (5, -2.06559704523679510402e+00) (6, -1.13789620261087209840e+00) (7, 2.16027958918926987764e+00) (3, -1.41943512945026739658e+00) (4, -1.84561733823580098601e+00) (5, -1.14236908651819923932e+00) (6, -1.11017959579010994098e+00) (7, 1.40808705294164027144e+00) (3, -1.51744467521071912941e+00) (4, -1.27685926823390394347e+00) (5, -1.95220971170420254381e+00) (6, -3.00187924713028841950e+00) (7, 6.46389629825298350774e-01) (8, 2.36938144812016071583e+00) (9, 2.25965156207281525624e+00) (10, 2.04185892666754620350e+00) (11, 2.72320921355188749757e+00) (12, -4.28907103565655811739e-01) 
