FANN_FLO_2.1
num_layers=4
learning_rate=0.500000
connection_rate=1.000000
network_type=0
learning_momentum=0.000000
training_algorithm=0
train_error_function=1
train_stop_function=0
cascade_output_change_fraction=0.010000
quickprop_decay=-0.000100
quickprop_mu=1.750000
rprop_increase_factor=1.200000
rprop_decrease_factor=0.500000
rprop_delta_min=0.000000
rprop_delta_max=50.000000
rprop_delta_zero=0.100000
cascade_output_stagnation_epochs=12
cascade_candidate_change_fraction=0.010000
cascade_candidate_stagnation_epochs=12
cascade_max_out_epochs=150
cascade_min_out_epochs=50
cascade_max_cand_epochs=150
cascade_min_cand_epochs=50
cascade_num_candidate_groups=2
bit_fail_limit=3.49999999999999977796e-01
cascade_candidate_limit=1.00000000000000000000e+03
cascade_weight_multiplier=4.00000000000000022204e-01
cascade_activation_functions_count=10
cascade_activation_functions=3 5 7 8 10 11 14 15 16 17 
cascade_activation_steepnesses_count=4
cascade_activation_steepnesses=2.50000000000000000000e-01 5.00000000000000000000e-01 7.50000000000000000000e-01 1.00000000000000000000e+00 
layer_sizes=3 5 5 2 
scale_included=0
neurons (num_inputs, activation_function, activation_steepness)=(0, 0, 0.00000000000000000000e+00) (0, 0, 0.00000000000000000000e+00) (0, 0, 0.00000000000000000000e+00) (3, 4, 5.00000000000000000000e-01) (3, 4, 5.00000000000000000000e-01) (3, 4, 5.00000000000000000000e-01) (3, 4, 5.00000000000000000000e-01) (0, 0, 0.00000000000000000000e+00) (5, 4, 5.00000000000000000000e-01) (5, 4, 5.00000000000000000000e-01) (5, 4, 5.00000000000000000000e-01) (5, 4, 5.00000000000000000000e-01) (0, 0, 0.00000000000000000000e+00) (5, 6, 5.00000000000000000000e-01) (0, 6, 0.00000000000000000000e+00) 
connections (connected_to_neuron, weight)=(0, -4.24539859740546265954e+00) (1, -4.03767337482548338556e+00) (2, -3.22653755040124001763e-01) (0, -5.94582081951227880978e+00) (1, 5.33402324542304295818e-01) (2, 3.19427012243509267364e+00) (0, 6.77247031223176199077e-01) (1, -5.59469155532486350779e+00) (2, 3.19108353925159482500e+00) (0, -6.46981710665072462518e+00) (1, -6.21309532977017653366e+00) (2, -9.66998665999906692470e-01) (3, -4.72757274994098608545e+00) (4, -5.37651383185128839415e+00) (5, -3.96885632284178679896e+00) (6, -4.86321582282648190443e+00) (7, 1.03355060064800863273e+00) (3, -1.96962837733356832537e+00) (4, -2.94349778193564404205e+00) (5, -2.44024816147383472043e+00) (6, -2.90197821593342819568e+00) (7, 3.07729901507078551504e+00) (3, -3.17481863856292889636e+00) (4, -3.43536319531076861367e+00) (5, -2.71645995504378401364e+00) (6, -3.06531555405727251795e+00) (7, -3.76138217287546761103e-01) (3, -1.59804414547483553122e+00) (4, -8.01543457939479009333e-01) (5, -2.89170489556907073236e+00) (6, -2.07928391180354354972e+00) (7, 6.58372911355396661648e-01) (8, 2.08415921526420966359e+00) (9, 3.54391046411976429198e+00) (10, 2.87909248052169353116e+00) (11, 2.94762422270446178274e+00) (12, -5.10523436821990542200e-02) 
