FANN_FLO_2.1
num_layers=4
learning_rate=0.700000
connection_rate=1.000000
network_type=0
learning_momentum=0.000000
training_algorithm=0
train_error_function=1
train_stop_function=0
cascade_output_change_fraction=0.010000
quickprop_decay=-0.000100
quickprop_mu=1.750000
rprop_increase_factor=1.200000
rprop_decrease_factor=0.500000
rprop_delta_min=0.000000
rprop_delta_max=50.000000
rprop_delta_zero=0.100000
cascade_output_stagnation_epochs=12
cascade_candidate_change_fraction=0.010000
cascade_candidate_stagnation_epochs=12
cascade_max_out_epochs=150
cascade_min_out_epochs=50
cascade_max_cand_epochs=150
cascade_min_cand_epochs=50
cascade_num_candidate_groups=2
bit_fail_limit=3.49999999999999977796e-01
cascade_candidate_limit=1.00000000000000000000e+03
cascade_weight_multiplier=4.00000000000000022204e-01
cascade_activation_functions_count=10
cascade_activation_functions=3 5 7 8 10 11 14 15 16 17 
cascade_activation_steepnesses_count=4
cascade_activation_steepnesses=2.50000000000000000000e-01 5.00000000000000000000e-01 7.50000000000000000000e-01 1.00000000000000000000e+00 
layer_sizes=3 9 9 2 
scale_included=0
neurons (num_inputs, activation_function, activation_steepness)=(0, 0, 0.00000000000000000000e+00) (0, 0, 0.00000000000000000000e+00) (0, 0, 0.00000000000000000000e+00) (3, 4, 5.00000000000000000000e-01) (3, 4, 5.00000000000000000000e-01) (3, 4, 5.00000000000000000000e-01) (3, 4, 5.00000000000000000000e-01) (3, 4, 5.00000000000000000000e-01) (3, 4, 5.00000000000000000000e-01) (3, 4, 5.00000000000000000000e-01) (3, 4, 5.00000000000000000000e-01) (0, 0, 0.00000000000000000000e+00) (9, 4, 5.00000000000000000000e-01) (9, 4, 5.00000000000000000000e-01) (9, 4, 5.00000000000000000000e-01) (9, 4, 5.00000000000000000000e-01) (9, 4, 5.00000000000000000000e-01) (9, 4, 5.00000000000000000000e-01) (9, 4, 5.00000000000000000000e-01) (9, 4, 5.00000000000000000000e-01) (0, 0, 0.00000000000000000000e+00) (9, 6, 5.00000000000000000000e-01) (0, 6, 0.00000000000000000000e+00) 
connections (connected_to_neuron, weight)=(0, 2.66398497537549072689e+00) (1, 2.76192465918780527545e+00) (2, 3.22768298309762968756e+00) (0, 2.45869977120402483095e+00) (1, 2.49336941240138232345e+00) (2, 2.79614752993472359677e+00) (0, 3.54698696343648878226e+00) (1, 3.56720863418843059378e+00) (2, -3.08750655681966668098e+00) (0, 2.79436827320840297517e+00) (1, 2.93802440353709393150e+00) (2, 3.51168414716909449425e+00) (0, 2.72912260673115358856e+00) (1, 2.84743424024924607352e+00) (2, 3.33830828456822814587e+00) (0, 2.93017663430560348914e+00) (1, 3.09022635864051098409e+00) (2, 3.78015773002918953338e+00) (0, 2.84755287860191375060e+00) (1, 2.99711730277162358149e+00) (2, 3.59668626359453336150e+00) (0, 2.92888378911681757089e+00) (1, 3.08528769270933045377e+00) (2, 3.77526240206337915239e+00) (3, -8.15871003951916140551e-01) (4, -5.65252194107870531425e-01) (5, 2.18795655074034089971e-01) (6, -9.64360376209374647871e-01) (7, -8.85803336303800148421e-01) (8, -1.28087158292437419682e+00) (9, -1.02514161644966295128e+00) (10, -1.11389329092650091191e+00) (11, 1.22639991452739605116e+00) (3, -5.08864092328043415847e-01) (4, -7.59395504186181902195e-02) (5, 5.00374055212803003911e+00) (6, -8.84374353710736915701e-01) (7, -6.49399676393520475237e-01) (8, -1.18870277626551179573e+00) (9, -1.01599161340110044627e+00) (10, -1.29620832298141008820e+00) (11, 2.61236183545182854004e+00) (3, -6.64257444933140872578e-01) (4, -4.88790442203171249247e-01) (5, -2.17889871140492685786e-01) (6, -9.51684452419477300289e-01) (7, -7.94196111242786662032e-01) (8, -1.15392308951580457865e+00) (9, -1.06502180436222859683e+00) (10, -1.18763850603115428406e+00) (11, 8.27215298037737412074e-01) (3, -6.55778682231613729847e-01) (4, 2.04628380679707858048e-02) (5, 7.03774375312831601548e+00) (6, -1.07229068950576489350e+00) (7, -7.70600937202660318803e-01) (8, -1.57670365471757256692e+00) (9, -1.14690371508850774696e+00) (10, -1.48291804511966596181e+00) (11, 2.64923177298775547328e+00) (3, -6.28601093924834986026e-01) (4, -5.29663446971128992757e-01) (5, -2.79721523584958164932e-01) (6, -8.72253692959838011767e-01) (7, -7.50930721815315949108e-01) (8, -8.95001174286703338190e-01) (9, -9.34251393931203155674e-01) (10, -9.96651808814980721962e-01) (11, 3.17053025914314445810e-01) (3, -6.67797246404611466453e-01) (4, -4.60017214887825154346e-01) (5, -3.18190598515781575273e-01) (6, -7.72439202952482806275e-01) (7, -7.96748880025902050939e-01) (8, -9.32333560174851250224e-01) (9, -8.65599691728219933218e-01) (10, -9.73590757052518185333e-01) (11, 1.83508398502538389030e-01) (3, -8.22902446954800748102e-01) (4, -4.44572445155966555763e-01) (5, 7.20823453766219257588e-01) (6, -1.06323574132418885441e+00) (7, -1.04015810492314120239e+00) (8, -1.44008854589814205838e+00) (9, -1.29540303425316349895e+00) (10, -1.45657517539928971217e+00) (11, 1.79642176576267242893e+00) (3, -7.23501188611242240789e-01) (4, -5.01951530145722357723e-01) (5, -3.60104039295059796810e-01) (6, -8.03433359520444811963e-01) (7, -7.51795770452573397513e-01) (8, -9.49308749757476255660e-01) (9, -7.82872340732382876460e-01) (10, -9.07504244599615206290e-01) (11, 1.44494113704476179194e-01) (12, -5.88738970783769355322e-01) (13, -4.65843390140380719799e+00) (14, 9.38544278491912353779e-02) (15, -7.19833376941696290174e+00) (16, 2.37497499432364374272e-02) (17, 1.60144117453655004946e-01) (18, -1.61200026894228654051e+00) (19, 2.01930407883095519583e-01) (20, 5.68036652006716291652e+00) 
